,0,1,2,3,4,5,6,7,8,9,10,11,12,13,14,15,16,17,18,19
Au,-0.0913952887058258,0.05029398575425148,-0.13177597522735596,0.11469282954931259,-0.15689757466316223,0.07494262605905533,-0.07412950694561005,0.05521663650870323,-0.07509969919919968,0.06532266736030579,-0.03341493383049965,0.05033336207270622,-0.04055361449718475,0.0022583252284675837,-0.1437504142522812,0.07550514489412308,-0.253471314907074,0.07299904525279999,-0.06473083794116974,0.02353953756392002
Be,-0.05534385144710541,-0.014904378913342953,0.03244750201702118,0.1415519267320633,-0.14598189294338226,-0.24104192852973938,0.13168543577194214,-0.03302064910531044,0.09929351508617401,-0.049991264939308167,0.05846913158893585,0.039150409400463104,-0.0029799481853842735,0.1665666252374649,-0.1306353062391281,-0.11800909787416458,0.0008668184746056795,-0.1697808802127838,-0.01277612429112196,-0.05706968903541565
Eu,-0.10534881800413132,-0.12206684052944183,0.02365841716527939,0.07106809318065643,-0.02045401930809021,-0.10076339542865753,-0.0023048415314406157,-0.0813974142074585,-0.13439419865608215,0.03926357626914978,0.001231794129125774,-0.001994446851313114,-0.057077035307884216,-0.10238205641508102,0.008313766680657864,0.15463721752166748,-0.10962255299091339,-0.007699049077928066,-0.09359489381313324,-0.07685293257236481
Tc,-0.10821518301963806,0.10187812149524689,-0.22338351607322693,-0.00894942693412304,-0.0058205160312354565,0.010731996037065983,-0.03541623055934906,-0.05480823665857315,0.10382901877164841,0.07239415496587753,0.03600456193089485,0.0664316788315773,-0.02734592743217945,-0.00645070755854249,0.1565927416086197,-0.0769212543964386,-0.005728515796363354,-0.07310566306114197,-0.12866847217082977,-0.0025001708418130875
Tm,-0.13716478645801544,-0.22598609328269958,-0.019551031291484833,-0.06765972077846527,-0.01773354783654213,-0.001442178850993514,0.000742577773053199,0.04924062639474869,-0.04024677723646164,0.006085100118070841,0.09681375324726105,0.0334426648914814,0.07609362155199051,0.08633312582969666,-0.03360060602426529,-0.16380390524864197,0.09379085898399353,-0.029487982392311096,0.0713457465171814,-0.07650783658027649
Li,-0.015532854944467545,-0.013296605087816715,0.0006632512668147683,0.12277330458164215,0.12159253656864166,0.058444492518901825,0.032840829342603683,-0.02758963406085968,-0.002337127923965454,-0.03988167271018028,0.00675145024433732,-0.05750627443194389,0.02916635572910309,0.024486150592565536,0.06559084355831146,-0.1432161182165146,0.009395564906299114,-0.17373016476631165,0.035235073417425156,0.2997015416622162
Pt,-0.15227240324020386,0.17074550688266754,-0.07436803728342056,-0.05494968220591545,0.06366501748561859,-0.09686749428510666,-0.04473894089460373,-0.026756785809993744,-0.14023242890834808,-0.007390380371361971,0.09964974969625473,-0.09182968735694885,0.049778200685977936,0.0766313299536705,0.019336512312293053,0.013358226977288723,0.018960891291499138,-0.024329716339707375,-0.014100492931902409,0.020786292850971222
Ge,-0.12107103317975998,0.07033386826515198,0.13304151594638824,-0.0005985285388305783,0.08305962383747101,-0.18457917869091034,-0.08314641565084457,0.15601247549057007,0.14355617761611938,0.0027873069047927856,0.06734617054462433,0.11611707508563995,0.12736059725284576,0.001597654540091753,-0.02358689159154892,0.10962127149105072,0.024604538455605507,-0.009490123949944973,-0.051854655146598816,0.042933836579322815
N,-0.1286672204732895,0.11979064345359802,0.1480850875377655,0.0010866348166018724,-0.027454938739538193,0.14049819111824036,0.07047859579324722,0.19319185614585876,-0.19355879724025726,0.13151372969150543,-0.08875922113656998,-0.04999657720327377,0.013948889449238777,0.010293008759617805,-0.16567614674568176,0.04516594111919403,0.036859553307294846,-0.11069148033857346,0.0427497960627079,0.014222688041627407
Dy,-0.13498790562152863,-0.23819778859615326,-0.009652010165154934,-0.09428058564662933,0.004904831759631634,0.009715256281197071,0.00817049853503704,0.05271686613559723,-0.10193983465433121,-0.014088003896176815,0.10013595223426819,0.08182907849550247,0.0329071469604969,0.04752443730831146,0.01931404136121273,-0.14893582463264465,-0.009366825222969055,-0.04092561453580856,0.006269839126616716,-0.04020284488797188
Tl,-0.07060222327709198,-0.008010734803974628,-0.03446121886372566,0.2036217600107193,-0.03543395921587944,0.1297982931137085,-0.08963358402252197,0.10058848559856415,0.025107959285378456,-0.10956871509552002,0.05411994084715843,-0.00296616880223155,-0.05572214722633362,0.01518353819847107,-0.0821852833032608,0.0027360832318663597,-0.00960487313568592,0.13424371182918549,-0.033578962087631226,-0.0015452314401045442
Cd,-0.04215630143880844,0.011736772023141384,0.019452370703220367,0.12556053698062897,-0.11264478415250778,-0.2194749414920807,-0.1924852430820465,0.014616154134273529,-0.09978572279214859,0.014315938577055931,0.01951025240123272,0.0005398790235631168,8.853022154653445e-05,0.10309582203626633,0.2626195549964905,0.15946367383003235,0.17514409124851227,-0.17001941800117493,0.3977504372596741,-0.22370770573616028
Xe,-0.03408775106072426,0.03471184894442558,-0.07117188721895218,0.01806987263262272,-0.07904554158449173,-0.12773948907852173,0.3111962676048279,0.02662711776793003,0.025196118280291557,-0.11771026998758316,0.05801815167069435,-0.062010981142520905,0.022268058732151985,-0.260099321603775,0.16530095040798187,-0.11651106923818588,0.0996054857969284,0.34558001160621643,0.09161179512739182,-0.006478379480540752
B,-0.09944815933704376,0.04272492229938507,-0.19995936751365662,0.03382740914821625,-0.12996064126491547,0.09792808443307877,-0.037718720734119415,-0.02160128764808178,0.15739864110946655,0.11230188608169556,-0.03498942404985428,0.13162492215633392,0.030836859717965126,-0.12697474658489227,0.13616757094860077,-0.06817568093538284,0.11858789622783661,-0.11514827609062195,-0.13717302680015564,-0.002813268220052123
Mg,-0.04076074808835983,-0.05012783780694008,0.01727340929210186,0.06510752439498901,0.0640132948756218,-0.09370317310094833,-0.008908100426197052,-0.10079529136419296,0.03031208924949169,0.045955728739500046,-0.050374843180179596,-0.06328513473272324,-0.1893654316663742,-0.16439306735992432,-0.20856645703315735,-0.2781893312931061,-0.07264968007802963,-0.1750248372554779,0.12390695512294769,0.2664857804775238
Ga,-0.10677456110715866,-0.05567333474755287,-0.013826237991452217,0.05757274478673935,-0.17324505746364594,0.08247736096382141,-0.16063439846038818,-0.03718479722738266,0.24174238741397858,-0.06534693390130997,0.07051350176334381,-0.03329695761203766,0.14964067935943604,-0.13571161031723022,-0.12399643659591675,0.17140553891658783,0.25012317299842834,-0.014093264006078243,0.005367439705878496,0.15495140850543976
Ca,-0.05688832327723503,-0.06499703228473663,0.020985577255487442,0.19393493235111237,0.1573375016450882,-0.12197838723659515,0.04820840805768967,-0.27854281663894653,-0.07399015128612518,0.18434523046016693,-0.13784252107143402,-0.0413283109664917,-0.009245537221431732,-0.10851997137069702,-0.1629694551229477,-0.16794775426387787,0.03998713567852974,-0.03331480175256729,0.004571071360260248,0.1403796374797821
Hf,-0.08438534289598465,0.007860477082431316,0.04011599346995354,0.04993302747607231,0.28026580810546875,-0.11193547397851944,-0.004842613358050585,0.1357230246067047,0.3121023178100586,0.23345336318016052,0.0225885771214962,0.1701589822769165,0.17099978029727936,-0.012376577593386173,-0.011115754954516888,0.052745118737220764,-0.20446914434432983,0.1740788370370865,0.12197694182395935,-0.06273750215768814
Pu,-0.1495445966720581,-0.0642317533493042,0.04308859631419182,-0.03181318938732147,-0.01194511167705059,-0.027921117842197418,-0.08636447787284851,0.11594157665967941,0.15248361229896545,-0.050261009484529495,-0.043614741414785385,-0.21558184921741486,-0.19802890717983246,-0.12779495120048523,-0.06100470945239067,0.12802161276340485,0.057204365730285645,-0.19540393352508545,0.004373990464955568,0.05750635638833046
Sb,-0.13789445161819458,0.11739081889390945,0.20629048347473145,-0.09578115493059158,-0.00937114842236042,0.128897026181221,0.04082117974758148,-0.001239640754647553,-0.025352315977215767,0.0010113943135365844,-0.07088236510753632,-0.08521079272031784,0.09285114705562592,-0.07775315642356873,0.03258708864450455,-0.006493766792118549,-0.06377745419740677,-0.15031780302524567,-0.07158001512289047,-0.08609967678785324
Nb,-0.12576010823249817,0.061453524976968765,-0.0102463960647583,-0.07106040418148041,0.07231412082910538,-0.014835771173238754,-0.05042066052556038,-0.020984336733818054,0.1068418100476265,-0.2664417624473572,-0.347665935754776,0.19205307960510254,0.007761780172586441,0.11583250761032104,-0.03147454187273979,-0.09972783178091049,0.031520843505859375,-0.07022280991077423,0.025818102061748505,-0.04095320403575897
Pm,-0.07338513433933258,-0.07483665645122528,-0.04715551808476448,0.007093665190041065,-0.0351613387465477,0.026997782289981842,0.07106520235538483,0.03238265588879585,0.1286061555147171,0.1753750741481781,-0.16793429851531982,-0.3341812491416931,-0.0006858053966425359,0.3935459852218628,0.06609538942575455,-0.06373420357704163,0.0295698344707489,0.07446366548538208,-0.00924318190664053,0.010533449240028858
Ba,-0.04785219952464104,-0.0385558120906353,0.018263647332787514,0.17180517315864563,0.13818113505840302,-0.09855149686336517,0.05486408621072769,-0.2244718372821808,-0.06080757826566696,0.1535581350326538,-0.09465649724006653,0.02326737903058529,-0.011603940278291702,-0.10519982129335403,-0.11425505578517914,0.11491560190916061,0.16435115039348602,-0.0626528263092041,-0.04310781508684158,-0.29169318079948425
Co,-0.13738450407981873,0.10878068208694458,0.23626041412353516,-0.0243986789137125,-0.05699910223484039,0.1012706384062767,0.0645071491599083,-0.21970690786838531,0.04520414397120476,0.02770659327507019,0.09701966494321823,0.06965942680835724,-0.17104120552539825,0.03421427682042122,0.0924084261059761,-0.030468003824353218,0.032618213444948196,0.05946860834956169,0.001466204528696835,-0.013090740889310837
O,-0.037352945655584335,0.014088870026171207,-0.025281891226768494,0.11611650139093399,-0.21411655843257904,-0.18451911211013794,0.49189597368240356,0.06035289540886879,0.10632327944040298,-0.12743528187274933,0.0056184083223342896,-0.002884720219299197,0.06887392699718475,-0.01737675815820694,-0.021774232387542725,0.07335922122001648,-0.07594533264636993,-0.04637519270181656,-0.020688164979219437,0.027923036366701126
Na,-0.04209089279174805,-0.013962717726826668,-0.009743861854076385,0.2705567181110382,0.21060581505298615,0.14355674386024475,0.03814290836453438,0.026010636240243912,-0.008831014856696129,-0.11983329057693481,0.05131560191512108,-0.046234071254730225,0.01605432853102684,0.028278319165110588,0.07974310964345932,-0.06789273023605347,-0.021130947396159172,-0.09548702090978622,0.017177501693367958,0.10145518183708191
V,-0.13391998410224915,0.1060221865773201,0.17370006442070007,-0.07547476142644882,-0.022587521001696587,0.11571361869573593,0.05700090900063515,-0.08826541900634766,0.015836790204048157,-0.04029393568634987,-0.12178210914134979,0.020855840295553207,-0.00789602193981409,-0.05157983675599098,0.0603446401655674,-0.07054950296878815,-0.12269207835197449,-0.11188964545726776,0.1337783932685852,-0.10468189418315887
Sm,-0.13489505648612976,-0.20665709674358368,-0.0027194172143936157,-0.0278813187032938,-0.00660450104624033,-0.004702723119407892,0.029237374663352966,0.03002457693219185,-0.14227615296840668,0.023400988429784775,-0.013756801374256611,-0.0073488675989210606,-0.024366864934563637,0.03015458583831787,0.09951433539390564,0.10103505104780197,-0.08646557480096817,0.05428697168827057,-0.09278552234172821,0.06879044324159622
Rb,-0.053015828132629395,-0.014242867939174175,-0.0051263123750686646,0.3176800012588501,0.22373977303504944,0.17949025332927704,0.05026917904615402,0.07956814020872116,0.025854965671896935,-0.18357041478157043,0.10083398222923279,-0.06528777629137039,0.044532500207424164,-0.00560250086709857,0.13806310296058655,0.018898792564868927,-0.017121704295277596,-0.04886827617883682,0.018846942111849785,-0.03664075955748558
Ho,-0.14256800711154938,-0.2285751849412918,-0.01581842079758644,-0.08220741897821426,-0.017171362414956093,0.018169615417718887,-0.003409355878829956,0.05541219934821129,-0.061927877366542816,-0.03116730973124504,0.09953898191452026,0.06800571829080582,0.022932203486561775,0.03298052400350571,-0.008387196809053421,-0.15237842500209808,0.023242613300681114,-0.03722745180130005,0.020171988755464554,-0.02766653709113598
Os,-0.11231540888547897,0.13270917534828186,-0.24542568624019623,-0.0710219293832779,0.08046426624059677,-0.04164167866110802,-0.06284458190202713,-0.1677432656288147,-0.021517017856240273,-0.033102817833423615,0.17102259397506714,-0.04176127165555954,0.04524847865104675,0.07661142945289612,-0.05770104005932808,0.04672858119010925,-0.129842147231102,-0.02530410885810852,-0.028612401336431503,-0.031077969819307327
Cl,-0.08811021596193314,0.08729922026395798,0.03520941361784935,0.02496895007789135,-0.047857217490673065,0.0020723482593894005,0.2918493449687958,0.1519511491060257,-0.13370315730571747,-0.030891282483935356,-0.06341046094894409,-0.1018558144569397,-0.006667347624897957,-0.01936689205467701,-0.08260244876146317,0.05238790810108185,0.11992734670639038,0.2268255650997162,0.24514299631118774,0.07811597734689713
Cu,-0.1170930564403534,0.06824607402086258,0.0909886583685875,0.14705972373485565,-0.08951784670352936,0.0549132339656353,-0.07813918590545654,-0.00560214975848794,-0.06285617500543594,0.014143095351755619,0.023509936407208443,0.14938604831695557,-0.2178216129541397,0.14494401216506958,-0.12141372263431549,-0.0716833621263504,0.09094420075416565,0.24673330783843994,-0.2386844903230667,0.04069588705897331
S,-0.09344542771577835,0.09788332134485245,-0.20601513981819153,0.004000743851065636,-0.040490493178367615,0.0184064581990242,0.0213831327855587,0.018299609422683716,0.05540258064866066,0.13232511281967163,-0.009794546291232109,0.11955581605434418,-0.02920318767428398,-0.2408236414194107,0.2780243456363678,-0.1937495768070221,0.12100760638713837,0.15041950345039368,-0.030125318095088005,0.00046682555694133043
Br,-0.08632495254278183,0.06181627884507179,-0.1627178192138672,0.09382551908493042,-0.16440126299858093,0.1962059587240219,0.07182427495718002,0.14865830540657043,-0.05893457308411598,0.16187402606010437,-0.18296058475971222,0.1272822916507721,-0.023351486772298813,-0.11220388859510422,-0.11517870426177979,0.003163581481203437,-0.05090680718421936,-0.1148754209280014,0.1986425369977951,0.02518596313893795
Sc,-0.13112129271030426,-0.11872106045484543,-0.04284800961613655,-0.004899277817457914,-0.05628134310245514,0.033507369458675385,0.0265874695032835,-0.0031459275633096695,0.15869052708148956,0.034023430198431015,0.029641829431056976,-0.06152787804603577,0.07148398458957672,0.1338149607181549,-0.07589402049779892,-0.05010654032230377,0.009287530556321144,0.011808290146291256,0.20776258409023285,-0.03411470726132393
Gd,-0.13071198761463165,-0.19561190903186798,0.013700002804398537,-0.08233235776424408,-0.02180587686598301,0.0402267724275589,0.02100582793354988,0.01848907582461834,-0.12859079241752625,-0.022186726331710815,0.057614173740148544,0.08184721320867538,-0.008989003486931324,-0.036340415477752686,0.0639386922121048,0.03939763829112053,-0.11491555720567703,-0.04610510915517807,-0.06086378172039986,0.0180972907692194
Sn,-0.15605837106704712,0.11928283423185349,0.21354630589485168,0.02669546566903591,0.025141103193163872,-0.13520006835460663,-0.0450107716023922,0.11000995337963104,0.043921712785959244,0.0620548278093338,0.07596548646688461,0.03704192116856575,0.06200388818979263,-0.00036957900738343596,0.005186893977224827,0.0034955195151269436,0.004693652503192425,0.05983874946832657,-0.09854689240455627,0.06368792057037354
Sr,-0.060738518834114075,-0.06540951877832413,0.003974733874201775,0.1937405914068222,0.17811758816242218,-0.10949438810348511,0.07976929098367691,-0.27496737241744995,-0.07811354845762253,0.20670199394226074,-0.17092519998550415,0.01064260583370924,0.01410217210650444,-0.09704718738794327,-0.08679129183292389,0.13238462805747986,0.13601131737232208,-0.0046945796348154545,-0.06862346827983856,-0.1806538701057434
U,-0.11227969825267792,-0.03852643072605133,-0.013750536367297173,-0.09153856337070465,0.09870830923318863,-0.09386900812387466,0.012422345578670502,0.06920254975557327,0.050073835998773575,-0.2150522768497467,-0.09025359153747559,-0.09542609751224518,-0.26229211688041687,-0.21288982033729553,-0.04239099100232124,0.018542038276791573,-0.014783348888158798,0.1525040566921234,0.1040254458785057,-0.09718695282936096
Ru,-0.14806123077869415,0.15097931027412415,-0.20220239460468292,-0.05222184583544731,0.011708898469805717,0.018155593425035477,0.010137301869690418,-0.02971281297504902,0.008918365463614464,0.07501552253961563,0.007769576273858547,-0.01615101285278797,0.03943086043000221,0.0063263787887990475,0.11174331605434418,-0.014750102534890175,-0.02263391576707363,-0.05141545459628105,-0.11333909630775452,0.03161662444472313
W,-0.13476577401161194,0.15808089077472687,-0.030689697712659836,-0.13230302929878235,0.13181962072849274,-0.04405952990055084,0.06286366283893585,-0.011514794081449509,-0.18059054017066956,-0.1450958251953125,0.028092510998249054,-0.08013536781072617,0.07668575644493103,-0.03764736279845238,-0.07858201116323471,-0.040583137422800064,0.12774908542633057,0.15002740919589996,0.09915836900472641,0.026316117495298386
Er,-0.13963738083839417,-0.22746087610721588,-0.022957807406783104,-0.09768254309892654,0.0014528819592669606,0.00951272901147604,0.004736432805657387,0.0495508648455143,-0.058622878044843674,-0.039688073098659515,0.08662047982215881,0.08931278437376022,0.037369925528764725,0.028765780851244926,-0.010747870430350304,-0.16433238983154297,0.02158500626683235,-0.05047527700662613,0.03574676811695099,-0.04096734896302223
He,0.0,0.0,0.0,0.0,0.0,0.0,0.0,0.0,4.0389678347315804e-28,0.0,2.0679515313825692e-25,1.6543612251060553e-24,4.632211430296955e-23,1.3552527156068805e-20,3.3881317890172014e-21,4.336808689942018e-19,2.2768245622195593e-18,2.3592239273284576e-16,8.326672684688674e-16,1.9984014443252818e-15
Lu,-0.12991899251937866,-0.20972777903079987,-0.01116952858865261,-0.07415194809436798,-0.014559543691575527,0.01859871856868267,-0.008763606660068035,0.021921174600720406,-0.009918180294334888,-0.010039985179901123,0.11275734007358551,0.05330461263656616,0.09498275816440582,0.0707865059375763,-0.06002962961792946,-0.2073945552110672,0.11898211389780045,0.023786533623933792,0.050052084028720856,-0.06822405010461807
Si,-0.13159435987472534,0.17156098783016205,0.200658917427063,-0.10346002131700516,0.13177156448364258,-0.013089246116578579,0.04985665902495384,0.13172174990177155,-0.1324843317270279,0.0928453728556633,0.045939795672893524,-0.053918465971946716,0.054882049560546875,0.013113481923937798,0.004234455060213804,0.0029127507004886866,0.14014974236488342,-0.11661320924758911,-0.14602169394493103,0.07731792330741882
Rh,-0.14223353564739227,0.09149681776762009,-0.21180711686611176,0.0057344282977283,-0.10142376273870468,0.03068123757839203,-0.02421126514673233,-0.058348000049591064,0.02393035963177681,0.005605636164546013,-0.008888736367225647,-0.04914567619562149,0.10511400550603867,0.06721772253513336,0.05975424870848656,0.13388435542583466,-0.06604268401861191,-0.029984699562191963,0.04861714690923691,0.008350702933967113
Ac,-0.07754573225975037,-0.06736578047275543,-0.055315155535936356,0.015401124022901058,-0.03568236157298088,0.04841240495443344,0.1266019493341446,0.014894403517246246,0.12111186236143112,0.17243953049182892,-0.19881798326969147,-0.34833627939224243,-0.022733809426426888,0.263788104057312,0.12036305665969849,0.04452613741159439,-0.02082754299044609,0.07204218208789825,0.0060066827572882175,0.02357148379087448
I,-0.10112780332565308,0.10196327418088913,-0.13678911328315735,0.029415840283036232,-0.07375049591064453,0.13395144045352936,0.0774344652891159,0.12265200167894363,-0.14739486575126648,0.10597697645425797,-0.12800927460193634,0.025775551795959473,0.018481221050024033,-0.13302871584892273,-0.161452054977417,-0.05921607092022896,-0.033536963164806366,-0.07805915176868439,0.2359505146741867,-0.049358393996953964
Mo,-0.12127117067575455,0.12532898783683777,0.0024820382241159678,-0.10047995299100876,0.06269323825836182,0.01714188978075981,0.05567576736211777,-0.021277111023664474,-0.03436903655529022,-0.09439237415790558,-0.07819271087646484,0.024600669741630554,0.04784577712416649,-0.04597961902618408,0.07587666064500809,-0.062345828860998154,0.15325522422790527,0.03806798905134201,-0.004231251776218414,0.017347726970911026
Kr,-0.01415341254323721,0.00866388063877821,0.006206362508237362,0.115777887403965,-0.1665368378162384,-0.2544942796230316,0.3912893235683441,0.02106439881026745,0.11923547089099884,-0.1532098352909088,0.09416122734546661,0.08703942596912384,0.04696274548768997,0.01934504322707653,-0.04887532815337181,-0.010597839951515198,-0.08030369132757187,-0.21862098574638367,-0.21536673605442047,-0.05219247564673424
As,-0.06618928909301758,0.005988920573145151,0.057057540863752365,0.07151439040899277,-0.13664478063583374,-0.0168654453009367,-0.15072710812091827,0.028500227257609367,-0.030502894893288612,-0.11102301627397537,-0.16085854172706604,-0.21131277084350586,0.2852534353733063,-0.1184263825416565,-0.02480759657919407,-0.1329655647277832,-0.26112455129623413,0.13279584050178528,-0.21293462812900543,-0.03746167942881584
Ce,-0.06280680000782013,-0.034962479025125504,-0.018010487779974937,-0.031113645061850548,0.09894833713769913,-0.047739576548337936,-0.008777785114943981,-0.10094933211803436,-0.013750378973782063,-0.2406117469072342,-0.31604084372520447,0.20255346596240997,0.05310884490609169,0.13747306168079376,0.025367746129631996,0.21266554296016693,0.0647953599691391,0.0763615220785141,0.022727148607373238,0.21899566054344177
Fe,-0.10992526262998581,0.039683032780885696,0.1892540454864502,-0.009709939360618591,-0.14377571642398834,0.17908409237861633,0.027385719120502472,-0.2644723057746887,0.08856838196516037,0.007215968333184719,0.06189310550689697,0.0006082231993786991,-0.09847324341535568,-0.013343384489417076,0.1327197402715683,0.007235804107040167,-0.21058215200901031,0.0026071020402014256,0.15206636488437653,-0.0693289265036583
Cr,-0.12731710076332092,0.10398319363594055,-0.020531749352812767,-0.0867634266614914,0.050609055906534195,-0.02371135912835598,-0.019843563437461853,-0.20727869868278503,-0.06539864838123322,-0.1427120566368103,0.22926852107048035,-0.11621184647083282,0.07398810237646103,0.07364649325609207,-0.2555016577243805,0.11326111853122711,-0.10957919806241989,0.05070967599749565,0.13509336113929749,-0.014133053831756115
H,-0.028681570664048195,0.02497529238462448,-0.05762379243969917,0.08645790815353394,-0.020022843033075333,0.09546595066785812,0.004354263190180063,0.10426246374845505,-0.0591445118188858,0.020114589482545853,-0.01669219136238098,0.10418464243412018,-0.1307532638311386,0.07251749187707901,-0.16288749873638153,0.0015714454930275679,-0.06994491070508957,0.11593501269817352,0.07113935798406601,-0.15549319982528687
Zn,-0.06365172564983368,-0.010387958958745003,0.07193462550640106,0.2123304009437561,-0.10000939667224884,-0.19840197265148163,-0.22032079100608826,-0.08590325713157654,-0.09781929105520248,-0.03435353562235832,-0.07563672959804535,-0.1062631905078888,0.06562954187393188,-0.0767706111073494,0.023910291492938995,-0.2944786846637726,-0.16796405613422394,0.16784469783306122,0.002573935315012932,0.26556283235549927
Zr,-0.12564213573932648,0.043617941439151764,0.05376019701361656,-0.018339643254876137,0.18260306119918823,-0.13604535162448883,-0.05585574358701706,0.2126428484916687,0.2785130441188812,0.22426031529903412,0.042578600347042084,0.15191535651683807,0.07496597617864609,-0.014890606515109539,-0.024434605613350868,-0.005519924219697714,-0.19280356168746948,0.12288153171539307,0.1267470121383667,-0.03394973278045654
Ti,-0.15710699558258057,0.0678488090634346,0.15346750617027283,-0.046014510095119476,0.09357960522174835,-0.04407534748315811,0.022043652832508087,0.09026617556810379,0.10540830343961716,0.0944008007645607,-0.005379037000238895,0.06493832170963287,0.035559624433517456,0.040020901709795,-0.042327217757701874,-0.04285123199224472,-0.036906544119119644,0.004212713334709406,0.01825541816651821,0.06383571028709412
Cs,-0.03852861747145653,0.0011473017511889338,0.004374511539936066,0.26516416668891907,0.21177639067173004,0.1803480088710785,0.033014461398124695,0.0844256579875946,0.0036193574778735638,-0.15528005361557007,0.10784848034381866,-0.022937709465622902,0.02592015266418457,0.013827385380864143,0.11284907907247543,0.020276430994272232,-0.01910092495381832,-0.04074319824576378,-0.019027261063456535,-0.09271475672721863
Re,-0.11632608622312546,0.11562333256006241,-0.209839329123497,-0.06398949027061462,0.1001320332288742,-0.053783953189849854,-0.028703564777970314,-0.14215794205665588,-0.04296093434095383,-0.07701225578784943,0.17309367656707764,-0.1081954762339592,-0.0015072759706526995,0.06870804727077484,-0.14550498127937317,0.0018104594200849533,-0.07673221826553345,0.0683947205543518,0.04215988889336586,-0.05866402015089989
Ir,-0.1475144326686859,0.1486995667219162,-0.25645461678504944,-0.07049290835857391,0.055744532495737076,-0.02761019952595234,-0.013443170115351677,-0.10232354700565338,-0.027893200516700745,-0.0055409627966582775,0.10541996359825134,-0.06961742043495178,0.0556289479136467,0.020392004400491714,0.00999066699296236,-0.004607317503541708,-0.02856220118701458,0.008515959605574608,-0.016358869150280952,-0.025109296664595604
C,-0.08314824849367142,0.11006954312324524,0.029340801760554314,-0.030406424775719643,0.05812440067529678,-0.07392255961894989,0.039506979286670685,0.07116159051656723,-0.11754518747329712,0.048771925270557404,0.10497383028268814,0.06759843975305557,-0.044576652348041534,0.08550205081701279,-0.15658409893512726,0.12054970115423203,-0.015979688614606857,-0.12168589234352112,-0.08874106407165527,0.20500607788562775
In,-0.10353635996580124,-0.07566217333078384,-0.0023881203960627317,0.07290022820234299,-0.14914052188396454,0.09375445544719696,-0.1468852162361145,0.0263352133333683,0.21049286425113678,-0.062309928238391876,0.0968005433678627,-0.05840360000729561,0.0828014612197876,-0.1565198302268982,-0.1789282113313675,0.11899115890264511,0.2461824119091034,-0.045135535299777985,0.01596541330218315,0.08864195644855499
Pb,-0.09092053025960922,0.02918257564306259,0.08858741819858551,0.21469736099243164,-0.20740145444869995,-0.2547069191932678,-0.23125691711902618,0.035578448325395584,-0.15126141905784607,-0.06294754147529602,-0.03197159245610237,-0.055599719285964966,0.09102179855108261,0.05517260357737541,0.1778293401002884,0.012589157558977604,-0.05543900653719902,0.03639889135956764,0.17497067153453827,0.014841475524008274
Pr,-0.13839244842529297,-0.16734285652637482,-0.030678046867251396,-0.05526966229081154,-0.0020198295824229717,0.01049278024584055,0.01982087269425392,0.0159041415899992,-0.05108911171555519,-0.011070896871387959,-0.05283635854721069,0.045378658920526505,-0.07804407924413681,-0.029094191268086433,0.14828141033649445,0.21220551431179047,-0.063885897397995,0.04141073673963547,-0.10254701226949692,0.11363764852285385
Yb,-0.12396056205034256,-0.16654326021671295,-0.007140952628105879,-0.02449927292764187,0.0057433778420090675,-0.047735899686813354,0.017918160185217857,-0.03032873012125492,-0.04689362645149231,0.02106555923819542,0.05184473469853401,0.005702663213014603,-0.007380038034170866,0.043639324605464935,-0.04882793873548508,-0.07178815454244614,0.05314701423048973,-0.06277661770582199,-0.002349778078496456,-0.10053669661283493
Mn,-0.11664743721485138,0.05421551316976547,0.201676607131958,-0.009344832971692085,-0.09599701315164566,0.12588909268379211,0.051984045654535294,-0.27018800377845764,0.12542499601840973,0.0075984555296599865,0.09062893688678741,0.06503025442361832,-0.16384781897068024,0.0029888118151575327,0.1368521749973297,-0.06441235542297363,-0.1087276041507721,0.05079977959394455,0.12782728672027588,-0.060981687158346176
Al,-0.09148664772510529,-0.06831192970275879,0.042366381734609604,0.03438107669353485,-0.15808261930942535,0.16636116802692413,-0.019214030355215073,-0.1496760994195938,0.17695003747940063,-0.00017815818137023598,0.07781152427196503,-0.021969284862279892,0.20352695882320404,-0.04962671920657158,-0.16025404632091522,0.08908066898584366,0.2054477035999298,0.11596858501434326,0.00814500730484724,0.08541380614042282
K,-0.052807435393333435,0.004937066696584225,-0.010637686587870121,0.2964911162853241,0.22721119225025177,0.18781735002994537,0.04659472778439522,0.0720517560839653,0.0070829736068844795,-0.17981083691120148,0.11930530518293381,-0.04749611020088196,0.027208445593714714,0.01332616712898016,0.09975314885377884,-0.012533584609627724,-0.00849850196391344,-0.08198846131563187,0.018231406807899475,-0.02391558326780796
La,-0.11996016651391983,-0.16361720860004425,-0.017979847267270088,0.047963064163923264,0.04272092133760452,0.019059715792536736,0.06883729994297028,-0.08239251375198364,-0.08014698326587677,0.04251822084188461,-0.08312534540891647,0.0364321805536747,0.1034795269370079,-0.037141162902116776,0.1017267182469368,0.23283281922340393,-0.020673898980021477,0.15215569734573364,-0.050957273691892624,0.10334967821836472
Te,-0.02972826175391674,0.0353429839015007,0.02690000832080841,-0.024310482665896416,0.03428731486201286,-0.024480609223246574,0.01016800757497549,0.03699393570423126,-0.04974522814154625,-0.024443890899419785,0.0326373316347599,-0.058661650866270065,0.05251088738441467,-0.08781158179044724,-0.021815018728375435,-0.02694186381995678,0.18249544501304626,0.12818068265914917,-0.06439834833145142,-0.14120705425739288
Np,-0.13662375509738922,-0.03849621117115021,-0.10866295546293259,-0.03623785078525543,0.020822735503315926,-0.07286655157804489,-0.06729947775602341,0.06970501691102982,0.13782383501529694,-0.03798844665288925,-0.012833742424845695,-0.19277261197566986,-0.2845192849636078,-0.20322029292583466,0.004321488551795483,0.01586824283003807,-0.04619160667061806,-0.10072413086891174,-0.04946848750114441,-0.022753309458494186
Y,-0.12362197041511536,-0.1717430055141449,-0.033469632267951965,0.08860715478658676,0.12000344693660736,0.030044283717870712,0.06395022571086884,-0.1457473188638687,-0.016139673069119453,0.16273918747901917,-0.07299335300922394,0.022017670795321465,0.13185973465442657,-0.003712714184075594,-0.006312171462923288,0.008600631728768349,0.02236907184123993,0.030649099498987198,0.012968404218554497,0.01184046734124422
Se,-0.12178346514701843,0.13826967775821686,0.03244907036423683,-0.010539861395955086,0.011602135375142097,-0.02337038703262806,-0.0477714017033577,0.13998687267303467,-0.154592826962471,0.1010207012295723,-0.03755813464522362,-0.013536754064261913,0.020248496904969215,-0.11397472023963928,0.14602868258953094,-0.1059180274605751,0.16685989499092102,-0.09102920442819595,-0.06720717251300812,-0.0014235129347071052
Pa,-0.09694749861955643,0.014081518165767193,-0.014705872163176537,-0.04399678483605385,0.07408864051103592,-0.04649464040994644,-0.0073983315378427505,0.08231048285961151,0.15207283198833466,0.016969677060842514,-0.0918358862400055,-0.2711620032787323,-0.20377503335475922,0.20225085318088531,0.005512412171810865,-0.10282475501298904,0.17710229754447937,0.029648905619978905,-0.1279418170452118,-0.06911025941371918
Ta,-0.10551807284355164,0.04526868462562561,-0.07613725960254669,-0.07173994928598404,0.06996366381645203,-0.015280231833457947,-0.05746128410100937,-0.059775322675704956,0.1010517105460167,-0.30870822072029114,-0.36818763613700867,0.22534224390983582,0.027975069358944893,0.12459025532007217,-0.04513705149292946,-0.05989227816462517,0.02402028627693653,-0.05200100690126419,0.06091316416859627,-0.011585305444896221
P,-0.03434639796614647,0.002872154815122485,0.018664108589291573,0.010393028147518635,-0.04693204537034035,0.012407041154801846,-0.08349370956420898,0.028918106108903885,0.004621147643774748,-0.10903779417276382,-0.16182684898376465,-0.09666626155376434,0.22330176830291748,-0.09243667125701904,-0.09497896581888199,-0.10972132533788681,-0.06696536391973495,-0.02210296504199505,-0.2546227276325226,-0.41906607151031494
Bi,-0.15106067061424255,0.06493846327066422,0.1845582127571106,-0.04999814182519913,-0.10814127326011658,0.16129030287265778,0.020689303055405617,-0.004745122045278549,-0.022402334958314896,0.009137243032455444,-0.06691814213991165,-0.10978420823812485,0.13139067590236664,-0.05259640887379646,0.015183777548372746,0.0946909636259079,-0.12983012199401855,-0.10590361803770065,-0.04164142161607742,-0.03336798772215843
Hg,-0.08406514674425125,0.031946707516908646,0.07801705598831177,0.18873463571071625,-0.11631771922111511,-0.17627759277820587,-0.15022067725658417,0.08467469364404678,-0.09653113037347794,-0.03210683912038803,0.03655498847365379,0.01729998178780079,-0.10363069921731949,0.06544407457113266,0.04190339148044586,0.044231612235307693,0.11593449860811234,0.010540738701820374,0.04785226285457611,-0.10973259061574936
Ag,-0.07159928232431412,0.03220929950475693,-0.0709216520190239,0.20357580482959747,-0.08986026048660278,0.1318521797657013,-0.01456331368535757,0.12060669809579849,-0.05354531109333038,0.012999005615711212,0.003091964405030012,0.15380153059959412,-0.24371080100536346,0.1600903868675232,-0.1799839287996292,-0.008442544378340244,-0.004390429239720106,0.19327059388160706,-0.1327706277370453,-0.10908469557762146
Nd,-0.15675236284732819,-0.16774916648864746,0.01613142341375351,-0.07957161217927933,0.005388731602579355,0.009391328319907188,0.05364132300019264,0.029357202351093292,-0.11545411497354507,-0.013826288282871246,-0.025710202753543854,0.012415307573974133,-0.03065011277794838,-0.024014754220843315,0.10692516714334488,0.18529796600341797,-0.017623692750930786,0.06412922590970993,-0.08714441955089569,0.12325809895992279
Pd,-0.1307228058576584,0.11577988415956497,-0.17987751960754395,0.09309972822666168,-0.12767231464385986,-0.0956568792462349,-0.012957640923559666,-0.016096482053399086,-0.034509871155023575,0.06932861357927322,0.027769967913627625,0.13964977860450745,-0.06693977117538452,0.09995991736650467,0.09354425221681595,0.0445885993540287,-0.0018234429880976677,-0.1503896266222,-0.0438896119594574,0.09603814035654068
Ni,-0.14209075272083282,0.10501188039779663,0.17216990888118744,-0.0038439305499196053,-0.032051242887973785,0.022978650406003,0.0024860305711627007,-0.12660352885723114,0.0574304424226284,-0.024230660870671272,0.06026080623269081,0.11236125230789185,-0.14200280606746674,0.0815119817852974,0.04854505509138107,-0.06614861637353897,0.1267429143190384,0.07497841119766235,-0.12981700897216797,0.005529905203729868
Th,-0.10236146301031113,-0.0798424556851387,-0.02444223314523697,-0.04448078200221062,0.09642928838729858,-0.1274230182170868,-0.0773586854338646,0.06201743334531784,0.10057730227708817,-0.08327336609363556,-0.017667584121227264,-0.08640298247337341,-0.2870611250400543,-0.18684692680835724,-0.025780068710446358,0.14465630054473877,-0.1305525004863739,-0.036815330386161804,-0.004999194759875536,-0.060913968831300735
Tb,-0.13892407715320587,-0.20812217891216278,-0.00608471455052495,-0.09054958820343018,-0.0016035427106544375,0.022813867777585983,0.016320766881108284,0.07427119463682175,-0.09949015080928802,-0.019152052700519562,0.04576198384165764,0.054374437779188156,-0.020804207772016525,-0.030254365876317024,0.018658701330423355,-0.0423431396484375,-0.08399533480405807,-0.03631461411714554,-0.010465295985341072,-0.03652055561542511
